<?xml version="1.0" encoding="UTF-8"?>
<PMML version="3.0"><Header copyright="Copyright (c) StatSoft, Inc. All Rights Reserved."><Application name="STATISTICA Automated Neural Networks (SANN)" version="2.0"/></Header><DataDictionary numberOfFields="13"><DataField name="Категория эффективности" optype="categorical"><Value value="Высокая"/><Value value="Низкая"/><Value value="Средняя"/></DataField><DataField name="Комбинированная" optype="continuous"/><DataField name="Сухая кожа" optype="continuous"/><DataField name="Нормальная" optype="continuous"/><DataField name="Жирная" optype="continuous"/><DataField name="Чувствительная" optype="continuous"/><DataField name="Проблемная кожа" optype="continuous"/><DataField name="Универсальность" optype="continuous"/><DataField name="Оценка" optype="continuous"/><DataField name="Предназночение" optype="categorical"><Value value="Интенсивное обновление"/><Value value="Крем для глаз"/><Value value="Маска"/><Value value="Очищение"/><Value value="Солнцезащитное средство"/><Value value="Увлажнение"/><Value value="Уход"/></DataField><DataField name="Ценовой сегмент" optype="categorical"><Value value="Высокий"/><Value value="Низкий"/><Value value="Средний"/></DataField><DataField name="Возрастная категория" optype="categorical"><Value value="18+"/><Value value="25+"/><Value value="30+"/><Value value="35+"/><Value value="Для детей"/></DataField><DataField name="Тип состава" optype="categorical"><Value value="Натуральный"/><Value value="Неопределён"/><Value value="Смешанный"/><Value value="Химический"/></DataField></DataDictionary><NeuralNetwork modelName="cosme_MLP 27-9-3" functionName="classification"><MiningSchema><MiningField name="Категория эффективности" usageType="predicted"/><MiningField name="Комбинированная" lowValue="0.000000" highValue="1.000000"/><MiningField name="Сухая кожа" lowValue="0.000000" highValue="1.000000"/><MiningField name="Нормальная" lowValue="0.000000" highValue="1.000000"/><MiningField name="Жирная" lowValue="0.000000" highValue="1.000000"/><MiningField name="Чувствительная" lowValue="0.000000" highValue="1.000000"/><MiningField name="Проблемная кожа" lowValue="0.000000" highValue="1.000000"/><MiningField name="Универсальность" lowValue="0.000000" highValue="1.000000"/><MiningField name="Оценка" lowValue="0.000000" highValue="5.000000"/><MiningField name="Предназночение"/><MiningField name="Ценовой сегмент"/><MiningField name="Возрастная категория"/><MiningField name="Тип состава"/></MiningSchema><NeuralInputs numberOfInputs="27"><NeuralInput id="0"><DerivedField><NormContinuous field="Комбинированная" shift="-0,00000000000000e+000" scale="1,00000000000000e+000"><LinearNorm orig="0.00000000000000e+000" norm="0.000000"/><LinearNorm orig="1.00000000000000e+000" norm="1.000000"/></NormContinuous></DerivedField></NeuralInput><NeuralInput id="1"><DerivedField><NormContinuous field="Сухая кожа" shift="-0,00000000000000e+000" scale="1,00000000000000e+000"><LinearNorm orig="0.00000000000000e+000" norm="0.000000"/><LinearNorm orig="1.00000000000000e+000" norm="1.000000"/></NormContinuous></DerivedField></NeuralInput><NeuralInput id="2"><DerivedField><NormContinuous field="Нормальная" shift="-0,00000000000000e+000" scale="1,00000000000000e+000"><LinearNorm orig="0.00000000000000e+000" norm="0.000000"/><LinearNorm orig="1.00000000000000e+000" norm="1.000000"/></NormContinuous></DerivedField></NeuralInput><NeuralInput id="3"><DerivedField><NormContinuous field="Жирная" shift="-0,00000000000000e+000" scale="1,00000000000000e+000"><LinearNorm orig="0.00000000000000e+000" norm="0.000000"/><LinearNorm orig="1.00000000000000e+000" norm="1.000000"/></NormContinuous></DerivedField></NeuralInput><NeuralInput id="4"><DerivedField><NormContinuous field="Чувствительная" shift="-0,00000000000000e+000" scale="1,00000000000000e+000"><LinearNorm orig="0.00000000000000e+000" norm="0.000000"/><LinearNorm orig="1.00000000000000e+000" norm="1.000000"/></NormContinuous></DerivedField></NeuralInput><NeuralInput id="5"><DerivedField><NormContinuous field="Проблемная кожа" shift="-0,00000000000000e+000" scale="1,00000000000000e+000"><LinearNorm orig="0.00000000000000e+000" norm="0.000000"/><LinearNorm orig="1.00000000000000e+000" norm="1.000000"/></NormContinuous></DerivedField></NeuralInput><NeuralInput id="6"><DerivedField><NormContinuous field="Универсальность" shift="-0,00000000000000e+000" scale="1,00000000000000e+000"><LinearNorm orig="0.00000000000000e+000" norm="0.000000"/><LinearNorm orig="1.00000000000000e+000" norm="1.000000"/></NormContinuous></DerivedField></NeuralInput><NeuralInput id="7"><DerivedField><NormContinuous field="Оценка" shift="-0,00000000000000e+000" scale="2,00000000000000e-001"><LinearNorm orig="0.00000000000000e+000" norm="0.000000"/><LinearNorm orig="5.00000000000000e+000" norm="1.000000"/></NormContinuous></DerivedField></NeuralInput><NeuralInput id="8"><DerivedField><NormDiscrete field="Предназночение" value="Интенсивное обновление"/></DerivedField></NeuralInput><NeuralInput id="9"><DerivedField><NormDiscrete field="Предназночение" value="Крем для глаз"/></DerivedField></NeuralInput><NeuralInput id="10"><DerivedField><NormDiscrete field="Предназночение" value="Маска"/></DerivedField></NeuralInput><NeuralInput id="11"><DerivedField><NormDiscrete field="Предназночение" value="Очищение"/></DerivedField></NeuralInput><NeuralInput id="12"><DerivedField><NormDiscrete field="Предназночение" value="Солнцезащитное средство"/></DerivedField></NeuralInput><NeuralInput id="13"><DerivedField><NormDiscrete field="Предназночение" value="Увлажнение"/></DerivedField></NeuralInput><NeuralInput id="14"><DerivedField><NormDiscrete field="Предназночение" value="Уход"/></DerivedField></NeuralInput><NeuralInput id="15"><DerivedField><NormDiscrete field="Ценовой сегмент" value="Высокий"/></DerivedField></NeuralInput><NeuralInput id="16"><DerivedField><NormDiscrete field="Ценовой сегмент" value="Низкий"/></DerivedField></NeuralInput><NeuralInput id="17"><DerivedField><NormDiscrete field="Ценовой сегмент" value="Средний"/></DerivedField></NeuralInput><NeuralInput id="18"><DerivedField><NormDiscrete field="Возрастная категория" value="18+"/></DerivedField></NeuralInput><NeuralInput id="19"><DerivedField><NormDiscrete field="Возрастная категория" value="25+"/></DerivedField></NeuralInput><NeuralInput id="20"><DerivedField><NormDiscrete field="Возрастная категория" value="30+"/></DerivedField></NeuralInput><NeuralInput id="21"><DerivedField><NormDiscrete field="Возрастная категория" value="35+"/></DerivedField></NeuralInput><NeuralInput id="22"><DerivedField><NormDiscrete field="Возрастная категория" value="Для детей"/></DerivedField></NeuralInput><NeuralInput id="23"><DerivedField><NormDiscrete field="Тип состава" value="Натуральный"/></DerivedField></NeuralInput><NeuralInput id="24"><DerivedField><NormDiscrete field="Тип состава" value="Неопределён"/></DerivedField></NeuralInput><NeuralInput id="25"><DerivedField><NormDiscrete field="Тип состава" value="Смешанный"/></DerivedField></NeuralInput><NeuralInput id="26"><DerivedField><NormDiscrete field="Тип состава" value="Химический"/></DerivedField></NeuralInput></NeuralInputs><NeuralLayer numberOfNeurons="9" activationFunction="identity"><Neuron id="27" bias="-5.85825463215670e+000"><Con from="0" weight="1.01698891915076e+000"/><Con from="1" weight="1.90228558746331e+000"/><Con from="2" weight="3.76427637057669e-001"/><Con from="3" weight="1.84834927652429e+000"/><Con from="4" weight="-6.28461819722867e-001"/><Con from="5" weight="3.18356650163991e-001"/><Con from="6" weight="8.51821162191865e-001"/><Con from="7" weight="8.55945375370472e+000"/><Con from="8" weight="2.88061317525140e+000"/><Con from="9" weight="-1.20990161406745e+000"/><Con from="10" weight="-1.54022631185166e+000"/><Con from="11" weight="-7.50721383794904e-001"/><Con from="12" weight="-1.81880429737878e+000"/><Con from="13" weight="-1.55553739587916e+000"/><Con from="14" weight="-1.93726507426195e+000"/><Con from="15" weight="-1.00680808721826e+000"/><Con from="16" weight="-3.96818161096006e+000"/><Con from="17" weight="-9.33212378333737e-001"/><Con from="18" weight="-1.89713832287514e+000"/><Con from="19" weight="-6.23693695460062e-001"/><Con from="20" weight="-2.20690206251319e+000"/><Con from="21" weight="-1.16127868404065e+000"/><Con from="22" weight="1.22773224471807e-001"/><Con from="23" weight="-1.31512984632329e+000"/><Con from="24" weight="-1.45308601670213e+000"/><Con from="25" weight="-1.81118249233077e-001"/><Con from="26" weight="-2.99625112090817e+000"/></Neuron><Neuron id="28" bias="-5.76059671317718e+000"><Con from="0" weight="-8.96251438961149e-001"/><Con from="1" weight="1.69362373652022e+000"/><Con from="2" weight="1.11304086287415e-001"/><Con from="3" weight="7.89636927831261e-001"/><Con from="4" weight="1.81129632384312e-001"/><Con from="5" weight="-1.43521040513418e+000"/><Con from="6" weight="1.08333274631221e-001"/><Con from="7" weight="1.13262707941622e+001"/><Con from="8" weight="3.70191155550838e+000"/><Con from="9" weight="-1.33008939657492e+000"/><Con from="10" weight="-1.64623866138805e+000"/><Con from="11" weight="-1.53881170208120e+000"/><Con from="12" weight="-1.64266323922556e+000"/><Con from="13" weight="-2.75580001583358e+000"/><Con from="14" weight="-5.72966335184972e-001"/><Con from="15" weight="-5.35484003611762e-001"/><Con from="16" weight="-3.98816968812351e+000"/><Con from="17" weight="-1.21257058055961e+000"/><Con from="18" weight="-1.28337007554073e+000"/><Con from="19" weight="-1.19323580341875e+000"/><Con from="20" weight="-1.94296676972109e+000"/><Con from="21" weight="-1.44314568818622e+000"/><Con from="22" weight="6.41764801044597e-002"/><Con from="23" weight="-3.18482205375023e+000"/><Con from="24" weight="-1.76570901644696e+000"/><Con from="25" weight="1.20865020257835e+000"/><Con from="26" weight="-2.00814599230224e+000"/></Neuron><Neuron id="29" bias="8.48442108667176e+000"><Con from="0" weight="1.29430110028634e+000"/><Con from="1" weight="-1.86045203229233e-001"/><Con from="2" weight="1.19797429701539e+000"/><Con from="3" weight="-2.59198233169803e-001"/><Con from="4" weight="-2.23468955335688e+000"/><Con from="5" weight="-2.57051882162918e+000"/><Con from="6" weight="-4.98473812980817e-001"/><Con from="7" weight="-1.61849476928536e+001"/><Con from="8" weight="-2.81526818003189e+000"/><Con from="9" weight="2.63260803608541e+000"/><Con from="10" weight="2.58785756257881e+000"/><Con from="11" weight="1.02883518427731e+000"/><Con from="12" weight="1.63197387702457e+000"/><Con from="13" weight="1.28327059536713e+000"/><Con from="14" weight="2.18543680427206e+000"/><Con from="15" weight="2.22379312707370e+000"/><Con from="16" weight="2.17321723070594e+000"/><Con from="17" weight="4.11245341796062e+000"/><Con from="18" weight="3.34667619164313e+000"/><Con from="19" weight="1.88741077684302e+000"/><Con from="20" weight="1.82159227651555e+000"/><Con from="21" weight="1.51411503231604e+000"/><Con from="22" weight="-7.86799503592311e-002"/><Con from="23" weight="1.25740966165924e+000"/><Con from="24" weight="2.41788775225707e+000"/><Con from="25" weight="2.14694255153760e+000"/><Con from="26" weight="2.73383431994115e+000"/></Neuron><Neuron id="30" bias="2.59137551237502e+000"><Con from="0" weight="-2.83650508187510e+000"/><Con from="1" weight="-5.44250090744069e-001"/><Con from="2" weight="4.09353989769304e-001"/><Con from="3" weight="-1.79364064013297e+000"/><Con from="4" weight="-2.64020584935060e-001"/><Con from="5" weight="-3.79782862498144e+000"/><Con from="6" weight="-1.47234587084745e+000"/><Con from="7" weight="-3.67788373501169e+000"/><Con from="8" weight="-7.81514388639332e-001"/><Con from="9" weight="1.60513396647773e+000"/><Con from="10" weight="3.01882983485994e-001"/><Con from="11" weight="1.35615440727242e-001"/><Con from="12" weight="-3.34783188884238e-001"/><Con from="13" weight="2.40864132915500e-002"/><Con from="14" weight="1.59694875207736e+000"/><Con from="15" weight="1.37020069398303e+000"/><Con from="16" weight="-9.00894055314259e-001"/><Con from="17" weight="2.06919532682194e+000"/><Con from="18" weight="-1.02216002106354e+000"/><Con from="19" weight="7.08928819394626e-001"/><Con from="20" weight="1.21005091047598e+000"/><Con from="21" weight="1.68732918326266e+000"/><Con from="22" weight="-5.57395942565017e-002"/><Con from="23" weight="-2.32573755589519e+000"/><Con from="24" weight="1.57235991824172e+000"/><Con from="25" weight="2.15481854777801e+000"/><Con from="26" weight="1.17904175285918e+000"/></Neuron><Neuron id="31" bias="-9.38188224689327e+000"><Con from="0" weight="2.42540759834062e+000"/><Con from="1" weight="2.32832609869801e+000"/><Con from="2" weight="1.27833457601848e+000"/><Con from="3" weight="2.59770519213713e+000"/><Con from="4" weight="4.81940634455956e-001"/><Con from="5" weight="2.66437969721101e+000"/><Con from="6" weight="1.98148459483593e+000"/><Con from="7" weight="1.48754509488475e+001"/><Con from="8" weight="3.30594805216825e+000"/><Con from="9" weight="-2.59800012580065e+000"/><Con from="10" weight="-2.14009216300607e+000"/><Con from="11" weight="-1.07031711896646e+000"/><Con from="12" weight="-2.79722003302351e+000"/><Con from="13" weight="-8.63834913231716e-001"/><Con from="14" weight="-3.17331765595681e+000"/><Con from="15" weight="-3.79753869307535e+000"/><Con from="16" weight="-2.75754054828198e+000"/><Con from="17" weight="-2.82673412603231e+000"/><Con from="18" weight="-1.93303470658712e+000"/><Con from="19" weight="-2.60676588152492e+000"/><Con from="20" weight="-2.76702437530673e+000"/><Con from="21" weight="-2.17040429485176e+000"/><Con from="22" weight="1.60049348364129e-001"/><Con from="23" weight="7.04317545287671e-001"/><Con from="24" weight="-2.30152829713969e+000"/><Con from="25" weight="-3.75005028086703e+000"/><Con from="26" weight="-3.97210294001188e+000"/></Neuron><Neuron id="32" bias="-8.31654880229872e+000"><Con from="0" weight="1.40138636274305e+000"/><Con from="1" weight="1.43315849896466e+000"/><Con from="2" weight="1.00987063304616e+000"/><Con from="3" weight="8.16467367481118e-001"/><Con from="4" weight="9.48924748757466e-001"/><Con from="5" weight="5.63365614878154e-001"/><Con from="6" weight="1.05250504987298e+000"/><Con from="7" weight="1.58386718090653e+001"/><Con from="8" weight="3.75789703439291e+000"/><Con from="9" weight="-1.48890840145879e+000"/><Con from="10" weight="-1.89273285780081e+000"/><Con from="11" weight="-2.64458998575378e+000"/><Con from="12" weight="-2.21994042625463e+000"/><Con from="13" weight="-1.58231891066115e+000"/><Con from="14" weight="-2.27358782375468e+000"/><Con from="15" weight="-3.44312514614340e+000"/><Con from="16" weight="-2.27832887930844e+000"/><Con from="17" weight="-2.64695293696063e+000"/><Con from="18" weight="-1.77995181045025e+000"/><Con from="19" weight="-2.40338829633365e+000"/><Con from="20" weight="-2.03592754097938e+000"/><Con from="21" weight="-2.27809059844557e+000"/><Con from="22" weight="1.18651852251868e-001"/><Con from="23" weight="-1.12168534112404e+000"/><Con from="24" weight="-1.99037917490702e+000"/><Con from="25" weight="-2.92414358974094e+000"/><Con from="26" weight="-2.38580037926987e+000"/></Neuron><Neuron id="33" bias="-5.00006490040519e+000"><Con from="0" weight="1.16357581389562e+000"/><Con from="1" weight="-8.48244773382495e-002"/><Con from="2" weight="8.67362763998316e-001"/><Con from="3" weight="3.40093368148895e-001"/><Con from="4" weight="9.80743015794642e-001"/><Con from="5" weight="-7.13531498472215e-001"/><Con from="6" weight="3.93041509399158e-001"/><Con from="7" weight="1.12593986498224e+001"/><Con from="8" weight="2.87906742704361e+000"/><Con from="9" weight="-1.87684655050522e-001"/><Con from="10" weight="-4.62676344872059e-001"/><Con from="11" weight="-2.80558950858756e+000"/><Con from="12" weight="-1.62545895603269e+000"/><Con from="13" weight="-2.47236046109760e+000"/><Con from="14" weight="-3.83025939829132e-001"/><Con from="15" weight="-2.81601164736661e+000"/><Con from="16" weight="-1.35549928697897e+000"/><Con from="17" weight="-7.86240830725445e-001"/><Con from="18" weight="-9.96533055758616e-001"/><Con from="19" weight="-1.68147684451072e+000"/><Con from="20" weight="-6.81190628196847e-001"/><Con from="21" weight="-1.62752949597986e+000"/><Con from="22" weight="3.15009517883046e-002"/><Con from="23" weight="-2.04605812750330e+000"/><Con from="24" weight="-1.32868849581642e+000"/><Con from="25" weight="-1.56990675956703e+000"/><Con from="26" weight="-9.89667477701377e-002"/></Neuron><Neuron id="34" bias="-2.29654311176494e+000"><Con from="0" weight="1.43743971848598e+000"/><Con from="1" weight="8.65994250268933e-001"/><Con from="2" weight="8.59778136903458e-001"/><Con from="3" weight="7.52714514799031e-001"/><Con from="4" weight="-2.70792183778039e-001"/><Con from="5" weight="7.02970033660052e-001"/><Con from="6" weight="7.38212343133124e-001"/><Con from="7" weight="2.82199626613815e+000"/><Con from="8" weight="7.81834502061462e-001"/><Con from="9" weight="-3.69236355261336e-001"/><Con from="10" weight="-3.96277877321559e-001"/><Con from="11" weight="-7.16472483085208e-001"/><Con from="12" weight="-6.79355652877809e-001"/><Con from="13" weight="2.14069914286332e-001"/><Con from="14" weight="-1.15027365597024e+000"/><Con from="15" weight="-1.34031157548956e+000"/><Con from="16" weight="1.80702447798961e-001"/><Con from="17" weight="-1.07777079501514e+000"/><Con from="18" weight="-2.91339031901113e-001"/><Con from="19" weight="-6.78171814338873e-001"/><Con from="20" weight="-6.63881300110536e-001"/><Con from="21" weight="-6.83270950817641e-001"/><Con from="22" weight="8.97868760180469e-002"/><Con from="23" weight="1.07479782758459e+000"/><Con from="24" weight="-2.72483733790446e-001"/><Con from="25" weight="-1.87368062201093e+000"/><Con from="26" weight="-1.23880698855332e+000"/></Neuron><Neuron id="35" bias="-2.50853875328796e-001"><Con from="0" weight="1.61739499402000e+000"/><Con from="1" weight="-6.54559155044056e-001"/><Con from="2" weight="-1.24941107308668e+000"/><Con from="3" weight="-4.52106830215841e-003"/><Con from="4" weight="-5.20685246687531e-001"/><Con from="5" weight="-4.02756627243754e+000"/><Con from="6" weight="-7.93751802950605e-001"/><Con from="7" weight="5.40124411341214e+000"/><Con from="8" weight="4.09512972116597e+000"/><Con from="9" weight="1.22316558582382e+000"/><Con from="10" weight="1.47641771891107e+000"/><Con from="11" weight="-4.46189792191445e+000"/><Con from="12" weight="1.02635609013185e+000"/><Con from="13" weight="-5.54696341119529e+000"/><Con from="14" weight="1.95198056029922e+000"/><Con from="15" weight="-2.05491710926026e-001"/><Con from="16" weight="-1.15540091278564e+000"/><Con from="17" weight="1.14723276861832e+000"/><Con from="18" weight="2.65204609045079e+000"/><Con from="19" weight="-1.34565104477632e-001"/><Con from="20" weight="-4.10319496654351e-002"/><Con from="21" weight="-2.65258653240129e+000"/><Con from="22" weight="-2.79001272022852e-002"/><Con from="23" weight="-4.98497165722066e+000"/><Con from="24" weight="-1.28024827792669e+000"/><Con from="25" weight="2.97153308373662e+000"/><Con from="26" weight="3.03235377572970e+000"/></Neuron></NeuralLayer><NeuralLayer numberOfNeurons="3" normalizationMethod="softmax"><Neuron id="36" bias="-4.57326699916747e+000"><Con from="27" weight="1.28360850482496e+000"/><Con from="28" weight="1.76500229823226e+000"/><Con from="29" weight="-3.66408595432320e+000"/><Con from="30" weight="-1.69499781299747e-001"/><Con from="31" weight="2.88877932946261e+000"/><Con from="32" weight="3.26205957352087e+000"/><Con from="33" weight="2.42446324861956e+000"/><Con from="34" weight="2.60878535482506e-001"/><Con from="35" weight="5.77926270803935e-001"/></Neuron><Neuron id="37" bias="-1.16941955335522e+001"><Con from="27" weight="-1.82741430318715e+000"/><Con from="28" weight="-1.51400010585904e+000"/><Con from="29" weight="3.21646371013158e+000"/><Con from="30" weight="-3.77364071452118e-001"/><Con from="31" weight="-2.94982170765513e+000"/><Con from="32" weight="-3.38399552488914e+000"/><Con from="33" weight="-2.93782657412619e+000"/><Con from="34" weight="-5.00228150688918e-001"/><Con from="35" weight="-4.76465147737304e-001"/></Neuron><Neuron id="38" bias="1.62361078812794e+001"><Con from="27" weight="4.98155629387447e-001"/><Con from="28" weight="-2.29786674056830e-001"/><Con from="29" weight="3.42291497079509e-001"/><Con from="30" weight="5.58105919926296e-001"/><Con from="31" weight="9.43153362577786e-002"/><Con from="32" weight="1.02256125004817e-001"/><Con from="33" weight="5.47866364619842e-001"/><Con from="34" weight="3.50866580456191e-001"/><Con from="35" weight="-1.56518203146156e-001"/></Neuron></NeuralLayer><NeuralOutputs numberOfOutputs="3"><NeuralOutput outputNeuron="36"><DerivedField optype="categorical"><NormDiscrete field="Категория эффективности" value="Высокая"/></DerivedField></NeuralOutput><NeuralOutput outputNeuron="37"><DerivedField optype="categorical"><NormDiscrete field="Категория эффективности" value="Низкая"/></DerivedField></NeuralOutput><NeuralOutput outputNeuron="38"><DerivedField optype="categorical"><NormDiscrete field="Категория эффективности" value="Средняя"/></DerivedField></NeuralOutput></NeuralOutputs></NeuralNetwork></PMML>
